digraph Tree {
node [shape=box, style="rounded", color="black", fontname=helvetica] ;
edge [fontname=helvetica] ;
0 [label="petal width (cm) <= 0.8\ngini = 0.667\nsamples = 150\nvalue = [50, 50, 50]"] ;
1 [label="gini = 0.0\nsamples = 50\nvalue = [50, 0, 0]"] ;
0 -> 1 [labeldistance=2.5, labelangle=45, headlabel="True"] ;
2 [label="petal width (cm) <= 1.75\ngini = 0.5\nsamples = 100\nvalue = [0, 50, 50]"] ;
0 -> 2 [labeldistance=2.5, labelangle=-45, headlabel="False"] ;
3 [label="petal length (cm) <= 4.65\ngini = 0.168\nsamples = 54\nvalue = [0, 49, 5]"] ;
2 -> 3 ;
4 [label="petal length (cm) <= 4.45\ngini = 0.049\nsamples = 40\nvalue = [0, 39, 1]"] ;
3 -> 4 ;
5 [label="gini = 0.0\nsamples = 29\nvalue = [0, 29, 0]"] ;
4 -> 5 ;
6 [label="gini = 0.165\nsamples = 11\nvalue = [0, 10, 1]"] ;
4 -> 6 ;
7 [label="gini = 0.408\nsamples = 14\nvalue = [0, 10, 4]"] ;
3 -> 7 ;
8 [label="sepal length (cm) <= 6.25\ngini = 0.043\nsamples = 46\nvalue = [0, 1, 45]"] ;
2 -> 8 ;
9 [label="gini = 0.165\nsamples = 11\nvalue = [0, 1, 10]"] ;
8 -> 9 ;
10 [label="gini = 0.0\nsamples = 35\nvalue = [0, 0, 35]"] ;
8 -> 10 ;
}